digraph Tree {
node [shape=box, style="filled, rounded", color="black", fontname=helvetica] ;
edge [fontname=helvetica] ;
0 [label=<RM &le; 6.9715<br/>mse = 85.7916<br/>samples = 379<br/>value = 22.4303>, fillcolor="#e581395c"] ;
1 [label=<LSTAT &le; 14.4<br/>mse = 40.2242<br/>samples = 327<br/>value = 19.856>, fillcolor="#e581394c"] ;
0 -> 1 [labeldistance=2.5, labelangle=45, headlabel="True"] ;
2 [label=<DIS &le; 1.2271<br/>mse = 25.4734<br/>samples = 191<br/>value = 23.3717>, fillcolor="#e5813961"] ;
1 -> 2 ;
3 [label=<mse = 0.0<br/>samples = 2<br/>value = 50.0>, fillcolor="#e58139ff"] ;
2 -> 3 ;
4 [label=<RM &le; 6.543<br/>mse = 18.1603<br/>samples = 189<br/>value = 23.0899>, fillcolor="#e581395f"] ;
2 -> 4 ;
5 [label=<RM &le; 6.0985<br/>mse = 9.6662<br/>samples = 146<br/>value = 21.5979>, fillcolor="#e5813957"] ;
4 -> 5 ;
6 [label=<LSTAT &le; 7.41<br/>mse = 8.1393<br/>samples = 74<br/>value = 20.3649>, fillcolor="#e581394f"] ;
5 -> 6 ;
7 [label=<mse = 3.4669<br/>samples = 4<br/>value = 24.425>, fillcolor="#e5813967"] ;
6 -> 7 ;
8 [label=<mse = 7.4105<br/>samples = 70<br/>value = 20.1329>, fillcolor="#e581394e"] ;
6 -> 8 ;
9 [label=<TAX &le; 208.0<br/>mse = 8.0667<br/>samples = 72<br/>value = 22.8653>, fillcolor="#e581395e"] ;
5 -> 9 ;
10 [label=<mse = 10.89<br/>samples = 2<br/>value = 32.9>, fillcolor="#e581399a"] ;
9 -> 10 ;
11 [label=<mse = 5.0268<br/>samples = 70<br/>value = 22.5786>, fillcolor="#e581395c"] ;
9 -> 11 ;
12 [label=<INDUS &le; 18.84<br/>mse = 13.7792<br/>samples = 43<br/>value = 28.1558>, fillcolor="#e581397d"] ;
4 -> 12 ;
13 [label=<AGE &le; 46.9<br/>mse = 9.8958<br/>samples = 42<br/>value = 27.8429>, fillcolor="#e581397c"] ;
12 -> 13 ;
14 [label=<mse = 5.469<br/>samples = 20<br/>value = 29.6>, fillcolor="#e5813986"] ;
13 -> 14 ;
15 [label=<mse = 8.5616<br/>samples = 22<br/>value = 26.2455>, fillcolor="#e5813972"] ;
13 -> 15 ;
16 [label=<mse = -0.0<br/>samples = 1<br/>value = 41.3>, fillcolor="#e58139cb"] ;
12 -> 16 ;
17 [label=<CRIM &le; 5.7819<br/>mse = 19.2014<br/>samples = 136<br/>value = 14.9184>, fillcolor="#e581392f"] ;
1 -> 17 ;
18 [label=<DIS &le; 1.9904<br/>mse = 11.4193<br/>samples = 73<br/>value = 17.3137>, fillcolor="#e581393d"] ;
17 -> 18 ;
19 [label=<TAX &le; 688.5<br/>mse = 6.1958<br/>samples = 22<br/>value = 14.8682>, fillcolor="#e581392f"] ;
18 -> 19 ;
20 [label=<LSTAT &le; 15.965<br/>mse = 3.6106<br/>samples = 19<br/>value = 15.3316>, fillcolor="#e5813931"] ;
19 -> 20 ;
21 [label=<mse = 1.9<br/>samples = 4<br/>value = 17.2>, fillcolor="#e581393c"] ;
20 -> 21 ;
22 [label=<mse = 2.8876<br/>samples = 15<br/>value = 14.8333>, fillcolor="#e581392e"] ;
20 -> 22 ;
23 [label=<B &le; 367.08<br/>mse = 12.5956<br/>samples = 3<br/>value = 11.9333>, fillcolor="#e581391d"] ;
19 -> 23 ;
24 [label=<mse = 0.0<br/>samples = 1<br/>value = 7.0>, fillcolor="#e5813900"] ;
23 -> 24 ;
25 [label=<mse = 0.64<br/>samples = 2<br/>value = 14.4>, fillcolor="#e581392c"] ;
23 -> 25 ;
26 [label=<CRIM &le; 0.4827<br/>mse = 9.9798<br/>samples = 51<br/>value = 18.3686>, fillcolor="#e5813943"] ;
18 -> 26 ;
27 [label=<NOX &le; 0.471<br/>mse = 7.4684<br/>samples = 27<br/>value = 20.0111>, fillcolor="#e581394d"] ;
26 -> 27 ;
28 [label=<mse = 0.8622<br/>samples = 3<br/>value = 15.6667>, fillcolor="#e5813933"] ;
27 -> 28 ;
29 [label=<mse = 5.64<br/>samples = 24<br/>value = 20.5542>, fillcolor="#e5813950"] ;
27 -> 29 ;
30 [label=<AGE &le; 85.2<br/>mse = 6.3558<br/>samples = 24<br/>value = 16.5208>, fillcolor="#e5813938"] ;
26 -> 30 ;
31 [label=<mse = 3.5944<br/>samples = 5<br/>value = 19.74>, fillcolor="#e581394c"] ;
30 -> 31 ;
32 [label=<mse = 3.6377<br/>samples = 19<br/>value = 15.6737>, fillcolor="#e5813933"] ;
30 -> 32 ;
33 [label=<NOX &le; 0.6055<br/>mse = 13.8669<br/>samples = 63<br/>value = 12.1429>, fillcolor="#e581391e"] ;
17 -> 33 ;
34 [label=<RM &le; 6.8425<br/>mse = 17.9732<br/>samples = 11<br/>value = 16.4636>, fillcolor="#e5813938"] ;
33 -> 34 ;
35 [label=<CRIM &le; 13.149<br/>mse = 6.3724<br/>samples = 10<br/>value = 15.36>, fillcolor="#e5813932"] ;
34 -> 35 ;
36 [label=<mse = 4.2225<br/>samples = 6<br/>value = 13.85>, fillcolor="#e5813929"] ;
35 -> 36 ;
37 [label=<mse = 1.0469<br/>samples = 4<br/>value = 17.625>, fillcolor="#e581393f"] ;
35 -> 37 ;
38 [label=<mse = 0.0<br/>samples = 1<br/>value = 27.5>, fillcolor="#e581397a"] ;
34 -> 38 ;
39 [label=<LSTAT &le; 19.645<br/>mse = 8.2136<br/>samples = 52<br/>value = 11.2288>, fillcolor="#e5813919"] ;
33 -> 39 ;
40 [label=<CRIM &le; 13.8903<br/>mse = 3.8746<br/>samples = 20<br/>value = 13.68>, fillcolor="#e5813928"] ;
39 -> 40 ;
41 [label=<mse = 2.1359<br/>samples = 17<br/>value = 14.2765>, fillcolor="#e581392b"] ;
40 -> 41 ;
42 [label=<mse = 0.2867<br/>samples = 3<br/>value = 10.3>, fillcolor="#e5813914"] ;
40 -> 42 ;
43 [label=<CRIM &le; 24.5978<br/>mse = 4.8234<br/>samples = 32<br/>value = 9.6969>, fillcolor="#e5813910"] ;
39 -> 43 ;
44 [label=<mse = 3.7487<br/>samples = 26<br/>value = 10.2115>, fillcolor="#e5813913"] ;
43 -> 44 ;
45 [label=<mse = 3.3589<br/>samples = 6<br/>value = 7.4667>, fillcolor="#e5813903"] ;
43 -> 45 ;
46 [label=<RM &le; 7.437<br/>mse = 68.5835<br/>samples = 52<br/>value = 38.6192>, fillcolor="#e58139bc"] ;
0 -> 46 [labeldistance=2.5, labelangle=-45, headlabel="False"] ;
47 [label=<CRIM &le; 13.0739<br/>mse = 31.6582<br/>samples = 30<br/>value = 32.99>, fillcolor="#e581399a"] ;
46 -> 47 ;
48 [label=<DIS &le; 1.5485<br/>mse = 21.2051<br/>samples = 29<br/>value = 33.6103>, fillcolor="#e581399e"] ;
47 -> 48 ;
49 [label=<mse = 0.0<br/>samples = 1<br/>value = 50.0>, fillcolor="#e58139ff"] ;
48 -> 49 ;
50 [label=<NOX &le; 0.4885<br/>mse = 12.0262<br/>samples = 28<br/>value = 33.025>, fillcolor="#e581399a"] ;
48 -> 50 ;
51 [label=<B &le; 381.005<br/>mse = 4.768<br/>samples = 18<br/>value = 34.3556>, fillcolor="#e58139a2"] ;
50 -> 51 ;
52 [label=<mse = 0.4225<br/>samples = 2<br/>value = 29.65>, fillcolor="#e5813986"] ;
51 -> 52 ;
53 [label=<mse = 2.1975<br/>samples = 16<br/>value = 34.9437>, fillcolor="#e58139a6"] ;
51 -> 53 ;
54 [label=<CRIM &le; 0.2366<br/>mse = 16.1681<br/>samples = 10<br/>value = 30.63>, fillcolor="#e581398c"] ;
50 -> 54 ;
55 [label=<mse = 0.0225<br/>samples = 2<br/>value = 23.75>, fillcolor="#e5813963"] ;
54 -> 55 ;
56 [label=<mse = 5.4125<br/>samples = 8<br/>value = 32.35>, fillcolor="#e5813996"] ;
54 -> 56 ;
57 [label=<mse = 0.0<br/>samples = 1<br/>value = 15.0>, fillcolor="#e581392f"] ;
47 -> 57 ;
58 [label=<RM &le; 7.7835<br/>mse = 16.8004<br/>samples = 22<br/>value = 46.2955>, fillcolor="#e58139e9"] ;
46 -> 58 ;
59 [label=<LSTAT &le; 5.25<br/>mse = 13.3943<br/>samples = 7<br/>value = 42.5>, fillcolor="#e58139d3"] ;
58 -> 59 ;
60 [label=<B &le; 381.925<br/>mse = 2.636<br/>samples = 5<br/>value = 44.5>, fillcolor="#e58139de"] ;
59 -> 60 ;
61 [label=<AGE &le; 33.35<br/>mse = 0.1225<br/>samples = 2<br/>value = 46.35>, fillcolor="#e58139e9"] ;
60 -> 61 ;
62 [label=<mse = 0.0<br/>samples = 1<br/>value = 46.7>, fillcolor="#e58139eb"] ;
61 -> 62 ;
63 [label=<mse = 0.0<br/>samples = 1<br/>value = 46.0>, fillcolor="#e58139e7"] ;
61 -> 63 ;
64 [label=<INDUS &le; 2.89<br/>mse = 0.5089<br/>samples = 3<br/>value = 43.2667>, fillcolor="#e58139d7"] ;
60 -> 64 ;
65 [label=<mse = 0.0<br/>samples = 1<br/>value = 42.3>, fillcolor="#e58139d1"] ;
64 -> 65 ;
66 [label=<mse = 0.0625<br/>samples = 2<br/>value = 43.75>, fillcolor="#e58139da"] ;
64 -> 66 ;
67 [label=<CRIM &le; 0.1439<br/>mse = 5.29<br/>samples = 2<br/>value = 37.5>, fillcolor="#e58139b5"] ;
59 -> 67 ;
68 [label=<mse = 0.0<br/>samples = 1<br/>value = 39.8>, fillcolor="#e58139c3"] ;
67 -> 68 ;
69 [label=<mse = 0.0<br/>samples = 1<br/>value = 35.2>, fillcolor="#e58139a7"] ;
67 -> 69 ;
70 [label=<PTRATIO &le; 14.8<br/>mse = 8.5302<br/>samples = 15<br/>value = 48.0667>, fillcolor="#e58139f4"] ;
58 -> 70 ;
71 [label=<ZN &le; 92.5<br/>mse = 0.32<br/>samples = 9<br/>value = 49.7>, fillcolor="#e58139fd"] ;
70 -> 71 ;
72 [label=<LSTAT &le; 5.515<br/>mse = 0.1575<br/>samples = 8<br/>value = 49.85>, fillcolor="#e58139fe"] ;
71 -> 72 ;
73 [label=<mse = 0.0<br/>samples = 6<br/>value = 50.0>, fillcolor="#e58139ff"] ;
72 -> 73 ;
74 [label=<mse = 0.36<br/>samples = 2<br/>value = 49.4>, fillcolor="#e58139fb"] ;
72 -> 74 ;
75 [label=<mse = 0.0<br/>samples = 1<br/>value = 48.5>, fillcolor="#e58139f6"] ;
71 -> 75 ;
76 [label=<LSTAT &le; 4.105<br/>mse = 10.8414<br/>samples = 6<br/>value = 45.6167>, fillcolor="#e58139e5"] ;
70 -> 76 ;
77 [label=<LSTAT &le; 3.555<br/>mse = 1.8519<br/>samples = 4<br/>value = 43.425>, fillcolor="#e58139d8"] ;
76 -> 77 ;
78 [label=<mse = 0.3025<br/>samples = 2<br/>value = 42.25>, fillcolor="#e58139d1"] ;
77 -> 78 ;
79 [label=<mse = 0.64<br/>samples = 2<br/>value = 44.6>, fillcolor="#e58139df"] ;
77 -> 79 ;
80 [label=<mse = 0.0<br/>samples = 2<br/>value = 50.0>, fillcolor="#e58139ff"] ;
76 -> 80 ;
}